digraph Tree {
node [shape=box, style="filled, rounded", color="black", fontname=helvetica] ;
edge [fontname=helvetica] ;
0 [label="22727 <= 0.47\nmse = 0.08\nsamples = 19918\nvalue = 0.5", fillcolor="#e5813981"] ;
1 [label="4507 <= 0.05\nmse = 0.08\nsamples = 19917\nvalue = 0.5", fillcolor="#e5813981"] ;
0 -> 1 [labeldistance=2.5, labelangle=45, headlabel="True"] ;
2 [label="53302 <= 0.42\nmse = 0.08\nsamples = 19892\nvalue = 0.5", fillcolor="#e5813981"] ;
1 -> 2 ;
3 [label="6092 <= 0.05\nmse = 0.08\nsamples = 19891\nvalue = 0.5", fillcolor="#e5813981"] ;
2 -> 3 ;
4 [label="21105 <= 0.62\nmse = 0.08\nsamples = 19890\nvalue = 0.5", fillcolor="#e5813981"] ;
3 -> 4 ;
5 [label="35179 <= 0.74\nmse = 0.08\nsamples = 19885\nvalue = 0.5", fillcolor="#e5813981"] ;
4 -> 5 ;
6 [label="11249 <= 1.48\nmse = 0.08\nsamples = 19883\nvalue = 0.5", fillcolor="#e5813981"] ;
5 -> 6 ;
7 [label="20815 <= 0.43\nmse = 0.08\nsamples = 19881\nvalue = 0.5", fillcolor="#e5813981"] ;
6 -> 7 ;
8 [label="44909 <= 0.04\nmse = 0.08\nsamples = 19880\nvalue = 0.5", fillcolor="#e5813981"] ;
7 -> 8 ;
9 [label="29442 <= 0.25\nmse = 0.08\nsamples = 19879\nvalue = 0.5", fillcolor="#e5813981"] ;
8 -> 9 ;
10 [label="28555 <= 0.75\nmse = 0.08\nsamples = 19877\nvalue = 0.5", fillcolor="#e5813981"] ;
9 -> 10 ;
11 [label="33502 <= 0.55\nmse = 0.08\nsamples = 19876\nvalue = 0.5", fillcolor="#e5813981"] ;
10 -> 11 ;
12 [label="57364 <= 0.87\nmse = 0.08\nsamples = 19875\nvalue = 0.5", fillcolor="#e5813981"] ;
11 -> 12 ;
13 [label="57999 <= 0.1\nmse = 0.08\nsamples = 19874\nvalue = 0.5", fillcolor="#e5813981"] ;
12 -> 13 ;
14 [label="50731 <= 0.41\nmse = 0.08\nsamples = 19873\nvalue = 0.5", fillcolor="#e5813981"] ;
13 -> 14 ;
15 [label="15569 <= 0.74\nmse = 0.08\nsamples = 19872\nvalue = 0.5", fillcolor="#e5813981"] ;
14 -> 15 ;
16 [label="9492 <= 0.67\nmse = 0.08\nsamples = 19871\nvalue = 0.5", fillcolor="#e5813981"] ;
15 -> 16 ;
17 [label="41069 <= 0.31\nmse = 0.08\nsamples = 19870\nvalue = 0.5", fillcolor="#e5813981"] ;
16 -> 17 ;
18 [label="37419 <= 0.71\nmse = 0.08\nsamples = 19869\nvalue = 0.5", fillcolor="#e5813981"] ;
17 -> 18 ;
19 [label="45107 <= 0.21\nmse = 0.08\nsamples = 19868\nvalue = 0.5", fillcolor="#e5813981"] ;
18 -> 19 ;
20 [label="17321 <= 0.75\nmse = 0.08\nsamples = 19865\nvalue = 0.5", fillcolor="#e5813981"] ;
19 -> 20 ;
21 [label="4664 <= 1.16\nmse = 0.08\nsamples = 19857\nvalue = 0.5", fillcolor="#e5813981"] ;
20 -> 21 ;
22 [label="3943 <= 3.67\nmse = 0.08\nsamples = 19856\nvalue = 0.5", fillcolor="#e5813981"] ;
21 -> 22 ;
23 [label="4158 <= 0.1\nmse = 0.08\nsamples = 19855\nvalue = 0.5", fillcolor="#e5813981"] ;
22 -> 23 ;
24 [label="51189 <= 0.5\nmse = 0.08\nsamples = 19854\nvalue = 0.5", fillcolor="#e5813981"] ;
23 -> 24 ;
25 [label="45064 <= 0.28\nmse = 0.08\nsamples = 19853\nvalue = 0.5", fillcolor="#e5813981"] ;
24 -> 25 ;
26 [label="37706 <= 0.44\nmse = 0.08\nsamples = 19852\nvalue = 0.5", fillcolor="#e5813981"] ;
25 -> 26 ;
27 [label="53315 <= 0.34\nmse = 0.08\nsamples = 19850\nvalue = 0.5", fillcolor="#e5813981"] ;
26 -> 27 ;
28 [label="2220 <= 0.99\nmse = 0.08\nsamples = 19849\nvalue = 0.5", fillcolor="#e5813981"] ;
27 -> 28 ;
29 [label="14182 <= 0.03\nmse = 0.08\nsamples = 19848\nvalue = 0.5", fillcolor="#e5813981"] ;
28 -> 29 ;
30 [label="31877 <= 0.72\nmse = 0.08\nsamples = 19847\nvalue = 0.5", fillcolor="#e5813981"] ;
29 -> 30 ;
31 [label="5971 <= 0.34\nmse = 0.08\nsamples = 19846\nvalue = 0.5", fillcolor="#e5813981"] ;
30 -> 31 ;
32 [label="13105 <= 2.53\nmse = 0.08\nsamples = 19834\nvalue = 0.5", fillcolor="#e5813981"] ;
31 -> 32 ;
33 [label="22159 <= 0.91\nmse = 0.08\nsamples = 19832\nvalue = 0.5", fillcolor="#e5813981"] ;
32 -> 33 ;
34 [label="27536 <= 0.07\nmse = 0.08\nsamples = 19831\nvalue = 0.5", fillcolor="#e5813981"] ;
33 -> 34 ;
35 [label="49511 <= 1.71\nmse = 0.08\nsamples = 19830\nvalue = 0.5", fillcolor="#e5813981"] ;
34 -> 35 ;
36 [label="36169 <= 0.01\nmse = 0.08\nsamples = 19828\nvalue = 0.5", fillcolor="#e5813981"] ;
35 -> 36 ;
37 [label="8130 <= 0.48\nmse = 0.08\nsamples = 19826\nvalue = 0.5", fillcolor="#e5813981"] ;
36 -> 37 ;
38 [label="51999 <= 0.45\nmse = 0.08\nsamples = 19824\nvalue = 0.5", fillcolor="#e5813981"] ;
37 -> 38 ;
39 [label="44024 <= 0.67\nmse = 0.08\nsamples = 19823\nvalue = 0.5", fillcolor="#e5813981"] ;
38 -> 39 ;
40 [label="40838 <= 0.62\nmse = 0.08\nsamples = 19822\nvalue = 0.5", fillcolor="#e5813981"] ;
39 -> 40 ;
41 [label="46700 <= 0.06\nmse = 0.08\nsamples = 19821\nvalue = 0.5", fillcolor="#e5813981"] ;
40 -> 41 ;
42 [label="52393 <= 0.01\nmse = 0.08\nsamples = 19820\nvalue = 0.5", fillcolor="#e5813981"] ;
41 -> 42 ;
43 [label="52684 <= 1.76\nmse = 0.08\nsamples = 19819\nvalue = 0.5", fillcolor="#e5813981"] ;
42 -> 43 ;
44 [label="19855 <= 0.0\nmse = 0.08\nsamples = 19817\nvalue = 0.5", fillcolor="#e5813981"] ;
43 -> 44 ;
45 [label="20197 <= 0.04\nmse = 0.08\nsamples = 19813\nvalue = 0.5", fillcolor="#e5813981"] ;
44 -> 45 ;
46 [label="50648 <= 0.94\nmse = 0.08\nsamples = 19812\nvalue = 0.5", fillcolor="#e5813981"] ;
45 -> 46 ;
47 [label="36845 <= 0.59\nmse = 0.08\nsamples = 19811\nvalue = 0.5", fillcolor="#e5813981"] ;
46 -> 47 ;
48 [label="50803 <= 0.37\nmse = 0.08\nsamples = 19810\nvalue = 0.5", fillcolor="#e5813981"] ;
47 -> 48 ;
49 [label="39448 <= 0.81\nmse = 0.08\nsamples = 19808\nvalue = 0.5", fillcolor="#e5813981"] ;
48 -> 49 ;
50 [label="mse = 0.08\nsamples = 19807\nvalue = 0.5", fillcolor="#e5813981"] ;
49 -> 50 ;
51 [label="mse = -0.0\nsamples = 1\nvalue = 0.06", fillcolor="#e5813910"] ;
49 -> 51 ;
52 [label="10551 <= 0.45\nmse = 0.0\nsamples = 2\nvalue = 0.71", fillcolor="#e58139b7"] ;
48 -> 52 ;
53 [label="mse = 0.0\nsamples = 1\nvalue = 0.73", fillcolor="#e58139bb"] ;
52 -> 53 ;
54 [label="mse = -0.0\nsamples = 1\nvalue = 0.69", fillcolor="#e58139b2"] ;
52 -> 54 ;
55 [label="mse = -0.0\nsamples = 1\nvalue = 0.73", fillcolor="#e58139bb"] ;
47 -> 55 ;
56 [label="mse = -0.0\nsamples = 1\nvalue = 0.88", fillcolor="#e58139e2"] ;
46 -> 56 ;
57 [label="mse = 0.0\nsamples = 1\nvalue = 0.41", fillcolor="#e581396a"] ;
45 -> 57 ;
58 [label="3635 <= 0.11\nmse = 0.05\nsamples = 4\nvalue = 0.41", fillcolor="#e581396a"] ;
44 -> 58 ;
59 [label="242 <= 0.04\nmse = 0.06\nsamples = 3\nvalue = 0.42", fillcolor="#e581396b"] ;
58 -> 59 ;
60 [label="1075 <= 0.08\nmse = 0.01\nsamples = 2\nvalue = 0.25", fillcolor="#e581393f"] ;
59 -> 60 ;
61 [label="mse = 0.0\nsamples = 1\nvalue = 0.32", fillcolor="#e5813953"] ;
60 -> 61 ;
62 [label="mse = -0.0\nsamples = 1\nvalue = 0.17", fillcolor="#e581392b"] ;
60 -> 62 ;
63 [label="mse = 0.0\nsamples = 1\nvalue = 0.75", fillcolor="#e58139c2"] ;
59 -> 63 ;
64 [label="mse = -0.0\nsamples = 1\nvalue = 0.41", fillcolor="#e5813968"] ;
58 -> 64 ;
65 [label="2721 <= 0.34\nmse = 0.09\nsamples = 2\nvalue = 0.44", fillcolor="#e5813970"] ;
43 -> 65 ;
66 [label="mse = 0.0\nsamples = 1\nvalue = 0.13", fillcolor="#e5813921"] ;
65 -> 66 ;
67 [label="mse = 0.0\nsamples = 1\nvalue = 0.74", fillcolor="#e58139bf"] ;
65 -> 67 ;
68 [label="mse = -0.0\nsamples = 1\nvalue = 0.31", fillcolor="#e581394e"] ;
42 -> 68 ;
69 [label="mse = -0.0\nsamples = 1\nvalue = 0.2", fillcolor="#e5813933"] ;
41 -> 69 ;
70 [label="mse = 0.0\nsamples = 1\nvalue = 0.24", fillcolor="#e581393e"] ;
40 -> 70 ;
71 [label="mse = -0.0\nsamples = 1\nvalue = 0.84", fillcolor="#e58139d8"] ;
39 -> 71 ;
72 [label="mse = -0.0\nsamples = 1\nvalue = 0.19", fillcolor="#e5813931"] ;
38 -> 72 ;
73 [label="6252 <= 0.2\nmse = 0.0\nsamples = 2\nvalue = 0.15", fillcolor="#e5813926"] ;
37 -> 73 ;
74 [label="mse = 0.0\nsamples = 1\nvalue = 0.2", fillcolor="#e5813932"] ;
73 -> 74 ;
75 [label="mse = 0.0\nsamples = 1\nvalue = 0.1", fillcolor="#e5813919"] ;
73 -> 75 ;
76 [label="52992 <= 0.52\nmse = 0.0\nsamples = 2\nvalue = 0.75", fillcolor="#e58139c0"] ;
36 -> 76 ;
77 [label="mse = 0.0\nsamples = 1\nvalue = 0.79", fillcolor="#e58139ca"] ;
76 -> 77 ;
78 [label="mse = 0.0\nsamples = 1\nvalue = 0.71", fillcolor="#e58139b6"] ;
76 -> 78 ;
79 [label="52861 <= 0.67\nmse = 0.21\nsamples = 2\nvalue = 0.52", fillcolor="#e5813985"] ;
35 -> 79 ;
80 [label="mse = 0.0\nsamples = 1\nvalue = 0.98", fillcolor="#e58139fb"] ;
79 -> 80 ;
81 [label="mse = 0.0\nsamples = 1\nvalue = 0.05", fillcolor="#e581390e"] ;
79 -> 81 ;
82 [label="mse = 0.0\nsamples = 1\nvalue = 0.25", fillcolor="#e581393f"] ;
34 -> 82 ;
83 [label="mse = 0.0\nsamples = 1\nvalue = 0.39", fillcolor="#e5813963"] ;
33 -> 83 ;
84 [label="91 <= 0.76\nmse = 0.09\nsamples = 2\nvalue = 0.44", fillcolor="#e5813970"] ;
32 -> 84 ;
85 [label="mse = 0.0\nsamples = 1\nvalue = 0.14", fillcolor="#e5813924"] ;
84 -> 85 ;
86 [label="mse = 0.0\nsamples = 1\nvalue = 0.74", fillcolor="#e58139bd"] ;
84 -> 86 ;
87 [label="10278 <= 0.63\nmse = 0.07\nsamples = 12\nvalue = 0.47", fillcolor="#e5813979"] ;
31 -> 87 ;
88 [label="15692 <= 1.43\nmse = 0.07\nsamples = 11\nvalue = 0.48", fillcolor="#e581397c"] ;
87 -> 88 ;
89 [label="3925 <= 0.04\nmse = 0.08\nsamples = 10\nvalue = 0.47", fillcolor="#e5813978"] ;
88 -> 89 ;
90 [label="1931 <= 0.01\nmse = 0.07\nsamples = 9\nvalue = 0.51", fillcolor="#e5813983"] ;
89 -> 90 ;
91 [label="4085 <= 0.83\nmse = 0.07\nsamples = 8\nvalue = 0.55", fillcolor="#e581398c"] ;
90 -> 91 ;
92 [label="1839 <= 0.74\nmse = 0.07\nsamples = 7\nvalue = 0.57", fillcolor="#e5813993"] ;
91 -> 92 ;
93 [label="18393 <= 0.76\nmse = 0.04\nsamples = 5\nvalue = 0.67", fillcolor="#e58139ac"] ;
92 -> 93 ;
94 [label="3328 <= 0.88\nmse = 0.05\nsamples = 4\nvalue = 0.64", fillcolor="#e58139a5"] ;
93 -> 94 ;
95 [label="2978 <= 0.33\nmse = 0.02\nsamples = 3\nvalue = 0.75", fillcolor="#e58139c0"] ;
94 -> 95 ;
96 [label="3195 <= 0.77\nmse = 0.02\nsamples = 2\nvalue = 0.81", fillcolor="#e58139d0"] ;
95 -> 96 ;
97 [label="mse = 0.0\nsamples = 1\nvalue = 0.66", fillcolor="#e58139aa"] ;
96 -> 97 ;
98 [label="mse = 0.0\nsamples = 1\nvalue = 0.95", fillcolor="#e58139f6"] ;
96 -> 98 ;
99 [label="mse = 0.0\nsamples = 1\nvalue = 0.62", fillcolor="#e58139a0"] ;
95 -> 99 ;
100 [label="mse = -0.0\nsamples = 1\nvalue = 0.33", fillcolor="#e5813954"] ;
94 -> 100 ;
101 [label="mse = -0.0\nsamples = 1\nvalue = 0.77", fillcolor="#e58139c7"] ;
93 -> 101 ;
102 [label="12618 <= 0.56\nmse = 0.07\nsamples = 2\nvalue = 0.34", fillcolor="#e5813956"] ;
92 -> 102 ;
103 [label="mse = 0.0\nsamples = 1\nvalue = 0.59", fillcolor="#e5813998"] ;
102 -> 103 ;
104 [label="mse = 0.0\nsamples = 1\nvalue = 0.08", fillcolor="#e5813914"] ;
102 -> 104 ;
105 [label="mse = -0.0\nsamples = 1\nvalue = 0.36", fillcolor="#e581395c"] ;
91 -> 105 ;
106 [label="mse = -0.0\nsamples = 1\nvalue = 0.22", fillcolor="#e5813937"] ;
90 -> 106 ;
107 [label="mse = -0.0\nsamples = 1\nvalue = 0.1", fillcolor="#e5813919"] ;
89 -> 107 ;
108 [label="mse = 0.0\nsamples = 1\nvalue = 0.63", fillcolor="#e58139a1"] ;
88 -> 108 ;
109 [label="mse = -0.0\nsamples = 1\nvalue = 0.33", fillcolor="#e5813954"] ;
87 -> 109 ;
110 [label="mse = -0.0\nsamples = 1\nvalue = 0.86", fillcolor="#e58139dd"] ;
30 -> 110 ;
111 [label="mse = -0.0\nsamples = 1\nvalue = 0.37", fillcolor="#e5813960"] ;
29 -> 111 ;
112 [label="mse = 0.0\nsamples = 1\nvalue = 0.49", fillcolor="#e581397e"] ;
28 -> 112 ;
113 [label="mse = 0.0\nsamples = 1\nvalue = 0.6", fillcolor="#e581399b"] ;
27 -> 113 ;
114 [label="49442 <= 0.02\nmse = 0.09\nsamples = 2\nvalue = 0.55", fillcolor="#e581398e"] ;
26 -> 114 ;
115 [label="mse = 0.0\nsamples = 1\nvalue = 0.25", fillcolor="#e5813940"] ;
114 -> 115 ;
116 [label="mse = 0.0\nsamples = 1\nvalue = 0.86", fillcolor="#e58139dc"] ;
114 -> 116 ;
117 [label="mse = -0.0\nsamples = 1\nvalue = 0.85", fillcolor="#e58139db"] ;
25 -> 117 ;
118 [label="mse = 0.0\nsamples = 1\nvalue = 0.76", fillcolor="#e58139c5"] ;
24 -> 118 ;
119 [label="mse = 0.0\nsamples = 1\nvalue = 0.47", fillcolor="#e5813979"] ;
23 -> 119 ;
120 [label="mse = -0.0\nsamples = 1\nvalue = 0.23", fillcolor="#e581393b"] ;
22 -> 120 ;
121 [label="mse = 0.0\nsamples = 1\nvalue = 0.79", fillcolor="#e58139cc"] ;
21 -> 121 ;
122 [label="1359 <= 0.69\nmse = 0.06\nsamples = 8\nvalue = 0.52", fillcolor="#e5813986"] ;
20 -> 122 ;
123 [label="26488 <= 0.06\nmse = 0.07\nsamples = 7\nvalue = 0.53", fillcolor="#e5813987"] ;
122 -> 123 ;
124 [label="17678 <= 0.22\nmse = 0.04\nsamples = 6\nvalue = 0.61", fillcolor="#e581399c"] ;
123 -> 124 ;
125 [label="2594 <= 2.46\nmse = 0.04\nsamples = 5\nvalue = 0.6", fillcolor="#e581399a"] ;
124 -> 125 ;
126 [label="17572 <= 0.06\nmse = 0.05\nsamples = 4\nvalue = 0.62", fillcolor="#e581399f"] ;
125 -> 126 ;
127 [label="1050 <= 0.27\nmse = 0.01\nsamples = 2\nvalue = 0.59", fillcolor="#e5813998"] ;
126 -> 127 ;
128 [label="mse = 0.0\nsamples = 1\nvalue = 0.7", fillcolor="#e58139b5"] ;
127 -> 128 ;
129 [label="mse = -0.0\nsamples = 1\nvalue = 0.48", fillcolor="#e581397b"] ;
127 -> 129 ;
130 [label="1699 <= 0.68\nmse = 0.09\nsamples = 2\nvalue = 0.65", fillcolor="#e58139a6"] ;
126 -> 130 ;
131 [label="mse = 0.0\nsamples = 1\nvalue = 0.94", fillcolor="#e58139f2"] ;
130 -> 131 ;
132 [label="mse = -0.0\nsamples = 1\nvalue = 0.35", fillcolor="#e581395a"] ;
130 -> 132 ;
133 [label="mse = -0.0\nsamples = 1\nvalue = 0.53", fillcolor="#e5813987"] ;
125 -> 133 ;
134 [label="mse = 0.0\nsamples = 1\nvalue = 0.63", fillcolor="#e58139a2"] ;
124 -> 134 ;
135 [label="mse = 0.0\nsamples = 1\nvalue = 0.05", fillcolor="#e581390e"] ;
123 -> 135 ;
136 [label="mse = -0.0\nsamples = 1\nvalue = 0.48", fillcolor="#e581397c"] ;
122 -> 136 ;
137 [label="9759 <= 0.42\nmse = 0.07\nsamples = 3\nvalue = 0.38", fillcolor="#e5813962"] ;
19 -> 137 ;
138 [label="3398 <= 0.62\nmse = 0.05\nsamples = 2\nvalue = 0.52", fillcolor="#e5813985"] ;
137 -> 138 ;
139 [label="mse = 0.0\nsamples = 1\nvalue = 0.3", fillcolor="#e581394d"] ;
138 -> 139 ;
140 [label="mse = 0.0\nsamples = 1\nvalue = 0.73", fillcolor="#e58139bc"] ;
138 -> 140 ;
141 [label="mse = -0.0\nsamples = 1\nvalue = 0.12", fillcolor="#e581391d"] ;
137 -> 141 ;
142 [label="mse = 0.0\nsamples = 1\nvalue = 0.43", fillcolor="#e581396e"] ;
18 -> 142 ;
143 [label="mse = -0.0\nsamples = 1\nvalue = 0.24", fillcolor="#e581393e"] ;
17 -> 143 ;
144 [label="mse = -0.0\nsamples = 1\nvalue = 0.12", fillcolor="#e581391d"] ;
16 -> 144 ;
145 [label="mse = 0.0\nsamples = 1\nvalue = 0.39", fillcolor="#e5813964"] ;
15 -> 145 ;
146 [label="mse = -0.0\nsamples = 1\nvalue = 0.89", fillcolor="#e58139e4"] ;
14 -> 146 ;
147 [label="mse = -0.0\nsamples = 1\nvalue = 0.26", fillcolor="#e5813942"] ;
13 -> 147 ;
148 [label="mse = -0.0\nsamples = 1\nvalue = 0.94", fillcolor="#e58139f2"] ;
12 -> 148 ;
149 [label="mse = -0.0\nsamples = 1\nvalue = 0.99", fillcolor="#e58139ff"] ;
11 -> 149 ;
150 [label="mse = 0.0\nsamples = 1\nvalue = 0.92", fillcolor="#e58139ec"] ;
10 -> 150 ;
151 [label="2575 <= 0.64\nmse = 0.19\nsamples = 2\nvalue = 0.49", fillcolor="#e581397e"] ;
9 -> 151 ;
152 [label="mse = 0.0\nsamples = 1\nvalue = 0.93", fillcolor="#e58139ee"] ;
151 -> 152 ;
153 [label="mse = -0.0\nsamples = 1\nvalue = 0.05", fillcolor="#e581390d"] ;
151 -> 153 ;
154 [label="mse = -0.0\nsamples = 1\nvalue = 0.85", fillcolor="#e58139da"] ;
8 -> 154 ;
155 [label="mse = 0.0\nsamples = 1\nvalue = 0.89", fillcolor="#e58139e4"] ;
7 -> 155 ;
156 [label="1575 <= 0.16\nmse = 0.01\nsamples = 2\nvalue = 0.7", fillcolor="#e58139b3"] ;
6 -> 156 ;
157 [label="mse = 0.0\nsamples = 1\nvalue = 0.81", fillcolor="#e58139cf"] ;
156 -> 157 ;
158 [label="mse = 0.0\nsamples = 1\nvalue = 0.59", fillcolor="#e5813997"] ;
156 -> 158 ;
159 [label="167 <= 0.87\nmse = 0.19\nsamples = 2\nvalue = 0.51", fillcolor="#e5813983"] ;
5 -> 159 ;
160 [label="mse = 0.0\nsamples = 1\nvalue = 0.07", fillcolor="#e5813913"] ;
159 -> 160 ;
161 [label="mse = 0.0\nsamples = 1\nvalue = 0.95", fillcolor="#e58139f3"] ;
159 -> 161 ;
162 [label="1163 <= 0.28\nmse = 0.04\nsamples = 5\nvalue = 0.39", fillcolor="#e5813964"] ;
4 -> 162 ;
163 [label="8865 <= 0.76\nmse = 0.04\nsamples = 4\nvalue = 0.33", fillcolor="#e5813954"] ;
162 -> 163 ;
164 [label="3 <= 0.87\nmse = 0.04\nsamples = 3\nvalue = 0.39", fillcolor="#e5813964"] ;
163 -> 164 ;
165 [label="55 <= 0.48\nmse = 0.05\nsamples = 2\nvalue = 0.36", fillcolor="#e581395b"] ;
164 -> 165 ;
166 [label="mse = 0.0\nsamples = 1\nvalue = 0.58", fillcolor="#e5813994"] ;
165 -> 166 ;
167 [label="mse = 0.0\nsamples = 1\nvalue = 0.13", fillcolor="#e5813922"] ;
165 -> 167 ;
168 [label="mse = -0.0\nsamples = 1\nvalue = 0.46", fillcolor="#e5813975"] ;
164 -> 168 ;
169 [label="mse = 0.0\nsamples = 1\nvalue = 0.15", fillcolor="#e5813925"] ;
163 -> 169 ;
170 [label="mse = -0.0\nsamples = 1\nvalue = 0.63", fillcolor="#e58139a3"] ;
162 -> 170 ;
171 [label="mse = -0.0\nsamples = 1\nvalue = 0.01", fillcolor="#e5813901"] ;
3 -> 171 ;
172 [label="mse = 0.0\nsamples = 1\nvalue = 0.3", fillcolor="#e581394c"] ;
2 -> 172 ;
173 [label="593 <= 0.42\nmse = 0.07\nsamples = 25\nvalue = 0.41", fillcolor="#e5813969"] ;
1 -> 173 ;
174 [label="3850 <= 0.72\nmse = 0.07\nsamples = 24\nvalue = 0.39", fillcolor="#e5813965"] ;
173 -> 174 ;
175 [label="19416 <= 0.4\nmse = 0.07\nsamples = 23\nvalue = 0.39", fillcolor="#e5813964"] ;
174 -> 175 ;
176 [label="2944 <= 0.59\nmse = 0.07\nsamples = 22\nvalue = 0.41", fillcolor="#e5813968"] ;
175 -> 176 ;
177 [label="412 <= 0.68\nmse = 0.06\nsamples = 21\nvalue = 0.39", fillcolor="#e5813963"] ;
176 -> 177 ;
178 [label="73 <= 0.83\nmse = 0.06\nsamples = 20\nvalue = 0.38", fillcolor="#e5813962"] ;
177 -> 178 ;
179 [label="11582 <= 0.67\nmse = 0.06\nsamples = 19\nvalue = 0.37", fillcolor="#e581395e"] ;
178 -> 179 ;
180 [label="153 <= 0.46\nmse = 0.07\nsamples = 18\nvalue = 0.36", fillcolor="#e581395d"] ;
179 -> 180 ;
181 [label="1630 <= 0.49\nmse = 0.06\nsamples = 17\nvalue = 0.39", fillcolor="#e5813963"] ;
180 -> 181 ;
182 [label="57727 <= 0.97\nmse = 0.06\nsamples = 16\nvalue = 0.38", fillcolor="#e5813962"] ;
181 -> 182 ;
183 [label="7613 <= 0.73\nmse = 0.07\nsamples = 15\nvalue = 0.37", fillcolor="#e581395f"] ;
182 -> 183 ;
184 [label="3263 <= 0.15\nmse = 0.07\nsamples = 14\nvalue = 0.38", fillcolor="#e5813961"] ;
183 -> 184 ;
185 [label="24333 <= 0.9\nmse = 0.07\nsamples = 13\nvalue = 0.39", fillcolor="#e5813965"] ;
184 -> 185 ;
186 [label="14314 <= 0.97\nmse = 0.08\nsamples = 12\nvalue = 0.39", fillcolor="#e5813964"] ;
185 -> 186 ;
187 [label="3811 <= 0.25\nmse = 0.08\nsamples = 11\nvalue = 0.4", fillcolor="#e5813967"] ;
186 -> 187 ;
188 [label="16 <= 0.86\nmse = 0.09\nsamples = 10\nvalue = 0.41", fillcolor="#e5813969"] ;
187 -> 188 ;
189 [label="552 <= 0.97\nmse = 0.1\nsamples = 9\nvalue = 0.41", fillcolor="#e581396a"] ;
188 -> 189 ;
190 [label="922 <= 0.45\nmse = 0.1\nsamples = 8\nvalue = 0.45", fillcolor="#e5813974"] ;
189 -> 190 ;
191 [label="10093 <= 0.45\nmse = 0.1\nsamples = 7\nvalue = 0.49", fillcolor="#e581397d"] ;
190 -> 191 ;
192 [label="2053 <= 0.72\nmse = 0.09\nsamples = 6\nvalue = 0.42", fillcolor="#e581396c"] ;
191 -> 192 ;
193 [label="41745 <= 0.06\nmse = 0.07\nsamples = 5\nvalue = 0.5", fillcolor="#e5813980"] ;
192 -> 193 ;
194 [label="4510 <= 0.06\nmse = 0.08\nsamples = 4\nvalue = 0.54", fillcolor="#e581398c"] ;
193 -> 194 ;
195 [label="782 <= 0.04\nmse = 0.09\nsamples = 3\nvalue = 0.49", fillcolor="#e581397d"] ;
194 -> 195 ;
196 [label="2823 <= 0.64\nmse = 0.09\nsamples = 2\nvalue = 0.62", fillcolor="#e581399e"] ;
195 -> 196 ;
197 [label="mse = 0.0\nsamples = 1\nvalue = 0.92", fillcolor="#e58139ed"] ;
196 -> 197 ;
198 [label="mse = 0.0\nsamples = 1\nvalue = 0.31", fillcolor="#e5813950"] ;
196 -> 198 ;
199 [label="mse = 0.0\nsamples = 1\nvalue = 0.23", fillcolor="#e581393a"] ;
195 -> 199 ;
200 [label="mse = 0.0\nsamples = 1\nvalue = 0.71", fillcolor="#e58139b8"] ;
194 -> 200 ;
201 [label="mse = 0.0\nsamples = 1\nvalue = 0.32", fillcolor="#e5813953"] ;
193 -> 201 ;
202 [label="mse = -0.0\nsamples = 1\nvalue = 0.03", fillcolor="#e5813908"] ;
192 -> 202 ;
203 [label="mse = 0.0\nsamples = 1\nvalue = 0.88", fillcolor="#e58139e3"] ;
191 -> 203 ;
204 [label="mse = -0.0\nsamples = 1\nvalue = 0.21", fillcolor="#e5813937"] ;
190 -> 204 ;
205 [label="mse = 0.0\nsamples = 1\nvalue = 0.09", fillcolor="#e5813916"] ;
189 -> 205 ;
206 [label="mse = -0.0\nsamples = 1\nvalue = 0.38", fillcolor="#e5813962"] ;
188 -> 206 ;
207 [label="mse = 0.0\nsamples = 1\nvalue = 0.31", fillcolor="#e581394f"] ;
187 -> 207 ;
208 [label="mse = 0.0\nsamples = 1\nvalue = 0.29", fillcolor="#e581394b"] ;
186 -> 208 ;
209 [label="mse = -0.0\nsamples = 1\nvalue = 0.43", fillcolor="#e581396e"] ;
185 -> 209 ;
210 [label="mse = -0.0\nsamples = 1\nvalue = 0.18", fillcolor="#e581392f"] ;
184 -> 210 ;
211 [label="mse = -0.0\nsamples = 1\nvalue = 0.24", fillcolor="#e581393e"] ;
183 -> 211 ;
212 [label="mse = 0.0\nsamples = 1\nvalue = 0.58", fillcolor="#e5813994"] ;
182 -> 212 ;
213 [label="mse = -0.0\nsamples = 1\nvalue = 0.42", fillcolor="#e581396c"] ;
181 -> 213 ;
214 [label="mse = 0.0\nsamples = 1\nvalue = 0.0", fillcolor="#e5813900"] ;
180 -> 214 ;
215 [label="mse = 0.0\nsamples = 1\nvalue = 0.43", fillcolor="#e581396e"] ;
179 -> 215 ;
216 [label="mse = 0.0\nsamples = 1\nvalue = 0.66", fillcolor="#e58139aa"] ;
178 -> 216 ;
217 [label="mse = -0.0\nsamples = 1\nvalue = 0.47", fillcolor="#e5813979"] ;
177 -> 217 ;
218 [label="mse = -0.0\nsamples = 1\nvalue = 0.8", fillcolor="#e58139cd"] ;
176 -> 218 ;
219 [label="mse = -0.0\nsamples = 1\nvalue = 0.04", fillcolor="#e581390b"] ;
175 -> 219 ;
220 [label="mse = 0.0\nsamples = 1\nvalue = 0.5", fillcolor="#e5813980"] ;
174 -> 220 ;
221 [label="mse = 0.0\nsamples = 1\nvalue = 0.76", fillcolor="#e58139c2"] ;
173 -> 221 ;
222 [label="mse = -0.0\nsamples = 1\nvalue = 0.91", fillcolor="#e58139e9"] ;
0 -> 222 [labeldistance=2.5, labelangle=-45, headlabel="False"] ;
}